11 100
</s> -0.001807 0.0026198 0.00050535 0.0014324 -0.00049237 -0.001524 -0.0010869 0.002036 -0.0014509 8.3748e-05 -0.00071059 0.00031294 0.0032068 0.001514 -0.0014624 -0.00058567 0.003057 0.00067775 0.0016487 -0.00098933 -0.0031281 0.00066887 -0.0020263 0.0013269 -0.0015107 -0.00057054 0.0018968 0.00044681 -0.0019381 0.00094152 0.00011144 0.0016307 -0.0055381 -0.00055611 0.00012297 -0.0014079 -0.00030282 -6.4703e-05 -0.0020559 -0.0018647 0.0019814 0.0024047 0.001946 -0.0028044 -0.0023189 0.0014288 0.0001021 -0.00035721 -0.00031667 -0.001469 -0.0026079 0.00090602 -0.0029164 -0.00082046 0.0020765 0.00022536 -0.0011785 0.00054184 0.0001412 0.00029186 -0.00026885 0.001084 0.000738 -0.0014822 0.001941 0.00079007 0.0012663 0.0028421 0.0011631 0.0013984 -0.0011351 0.000779 -0.0010591 0.00035831 -0.0020032 -0.00088932 -0.00081336 0.00074702 -0.00028255 0.00062056 -6.3681e-05 0.0023621 -0.0021775 -0.0022262 -0.00025236 -0.00050922 0.00050637 0.0024241 -0.0040611 -0.0011903 0.0013635 0.0014641 0.0022091 -0.0039894 0.0013308 -0.00088624 0.0014423 -0.00081197 0.00043991 0.00022933 
and -0.0010336 -0.0019488 0.0020324 0.00104 0.00051298 0.0048183 -0.0016027 0.00095998 0.00023436 -0.0015541 -9.346e-05 0.00015741 -0.0026706 -0.0012258 0.0016912 -0.00016496 0.0014475 0.0036993 -0.0034886 0.00097936 0.00025346 0.00043532 0.0044119 0.0014543 -0.0012228 -0.0021921 -0.00076894 -0.0010222 0.0014272 -0.0014321 0.0045287 0.00066465 -0.0012518 0.001773 -0.00098711 -0.0015709 -0.0006369 0.0042178 -0.00082307 -0.0023069 0.0016934 -0.00029121 -0.00039992 -0.0016777 0.0017924 0.0015654 0.0028289 0.00080044 -0.0036527 -0.0020705 -0.0023377 -0.0030338 -0.0020661 0.0018262 -0.00011333 0.000289 -0.00038872 -0.00027089 0.00032234 0.0012023 0.00049355 -0.00048465 0.0017322 0.001972 -0.0015252 0.0021708 -0.0016555 -0.0034212 0.00039852 0.00018179 -2.0241e-05 0.0011977 -0.0014711 -0.0032801 0.0015548 -0.0024876 -0.00016312 0.0045676 0.00038074 0.0015362 0.0016654 0.002698 0.00065786 0.0014079 0.0018704 -0.00020862 -0.00010495 0.0007479 -0.00092631 -0.0014493 -4.7231e-06 -0.005035 0.0025233 0.00084366 -0.0011657 0.0015201 -0.00042089 0.00078974 -0.0022416 -0.001485 
of 0.0044602 -0.0056166 0.0032316 0.003368 0.0030961 -0.00026555 -0.00018219 -0.0023073 0.00036608 0.0028936 -0.0029815 -0.0022929 0.0015634 0.0020138 -0.00073925 0.0035512 -0.0021478 0.0017414 0.00093231 0.00056145 0.0024133 -0.0044473 -0.00067261 0.00041371 -0.0030048 -0.001222 0.0045728 -0.003101 -0.00045078 0.0016551 -0.00082376 0.0016777 0.0012663 0.0004932 0.00041961 -0.001838 -0.0043588 -0.0011285 0.0024556 0.0047889 -0.002525 0.0017405 0.0044432 0.0023012 0.0015988 -0.00079773 0.007176 0.0024736 0.0031399 0.0032102 -0.0023193 0.00066286 -0.0027122 0.00065216 -0.0038568 0.0044912 0.0015581 -0.0012595 -0.0034556 0.0013883 0.0015423 6.2712e-05 0.0026048 -0.001368 0.00025989 -0.0062034 -0.0026124 -0.0012782 0.00068673 -0.0055767 0.0028773 0.0043477 -0.00011731 -0.0029098 -0.0046925 -0.0010218 0.0010085 -0.0021711 0.0025494 -0.0029599 0.0014366 0.00075345 0.00078604 0.00041106 -0.0027396 -0.0049066 0.0014691 0.00038975 0.0013751 -0.0006738 -0.0030011 -0.0029813 0.0012049 0.0012229 -0.00082128 -0.0022974 -0.00086027 0.0011359 -0.00035733 0.0023396 
to 0.0012595 0.0038697 -0.0025355 -0.0050257 0.0030009 0.0030113 -0.001081 -0.0026417 -0.0005062 0.0068499 0.00054703 0.0048362 -0.0023525 0.0029996 0.0011121 -0.0033313 0.0012638 -0.0074431 0.0066565 -0.0012811 0.0045141 0.0068124 -0.00076759 0.0019728 0.0020442 0.0039435 0.00088089 0.00059254 0.0017327 -0.0049748 -0.0030963 -0.00074614 0.00023669 0.00099656 -0.0011512 0.0035972 -9.0079e-05 0.0016411 -0.0013969 0.0037748 -0.0024247 -0.0018287 -0.00045097 -0.0034331 -0.0012886 -0.0014503 0.0031073 -0.00063395 0.0051029 0.0047227 -0.0064029 0.00037164 0.0021878 -0.0011036 0.00092841 -0.0063197 0.00044794 -0.00023449 -0.0043096 -0.0019205 -0.00015752 -0.0017723 0.0026905 0.0030784 -0.0029177 -0.0019035 0.0028716 -0.0048343 0.0038426 -0.0028974 0.0019779 0.0033307 0.0015466 -5.1456e-05 0.0034781 0.00085357 0.0043337 0.004441 -0.00021256 -0.0023424 0.0017742 0.004707 0.0012093 -0.00038576 0.0036328 -0.0055886 0.00077887 0.0041221 0.00038072 -0.00019398 0.00090543 -0.0018829 -0.0014174 0.0027227 -0.00035976 -0.0024784 -0.0037461 -0.00032783 0.0041672 -0.003053 
a -0.0047117 0.0050147 -0.0043362 -0.0011512 0.009759 0.0059094 0.0014045 -0.0047472 0.0059616 0.0021428 -0.00051493 -0.0024085 -0.0051771 0.0051935 0.0031475 0.0011623 0.006076 -0.0062892 -0.0063739 0.0074129 0.002749 -0.0011125 -0.00033392 -0.0018323 0.0060981 -0.00014682 0.0072596 -0.00016391 0.0021296 0.0057663 0.00026136 -0.00088518 -0.0055465 0.000297 -0.0033552 0.0018905 -0.0011011 0.0064974 0.007601 0.0038566 0.00076023 -0.00068604 0.0050245 0.0073691 0.00085495 -0.0069569 -0.0043786 0.00089411 0.0030243 0.0034873 -0.0068013 0.0066853 0.0011101 0.0010888 0.0067898 0.0052016 -0.0010336 0.0070691 -0.0054373 0.0044235 0.0028541 0.0051891 0.0028714 0.0012633 -0.00087731 0.0029573 -0.0035632 -0.0048768 -0.0062147 -0.00089696 -0.0016922 -0.002246 -0.0048057 1.6211e-05 -0.0051738 0.0019306 -0.0004665 -0.0036124 0.00055184 -0.005123 -0.0049394 0.0050735 0.0016377 0.0016088 -0.00058744 0.0025692 0.0054616 0.0060465 -4.1377e-05 -0.00024384 0.0072237 -0.0026775 -4.6158e-05 -0.0049004 -0.0032846 0.0040485 -0.0045026 -0.0035355 -0.00077082 -0.0012515 
I 0.0080621 -0.0023849 -0.0018198 0.0014118 0.0038293 0.0028265 -0.0032326 0.0014314 -0.0013118 0.0079827 0.0020411 0.0019248 -0.0050361 0.0023168 0.0017458 0.0065995 -0.00023977 -0.0063302 0.002479 0.00084337 0.0009114 -0.0033531 0.0077373 -0.005772 0.0054231 -0.00020798 0.0045302 -0.00082181 -0.0038468 0.0012805 -0.0064251 0.0047356 0.00022149 0.0019129 0.0030903 0.0016664 -0.0038064 -0.0025055 -0.0091651 0.0092055 -0.0053581 -0.00049502 0.0025653 -0.0031271 0.00357 -0.00055734 -0.0030773 -0.0021106 0.0012812 0.0053087 -0.00041977 -0.0030775 -0.0033292 -0.0017441 0.0068618 0.0054958 0.00051042 -0.0020584 -0.0039721 -0.0041408 -0.0040773 -0.0018088 0.0040685 -0.0020017 0.0029534 0.00082128 -0.0043857 -0.0061965 -0.0020562 0.00042784 0.00080987 0.0035448 0.0060275 -0.0062258 0.0030674 -0.0049451 0.0013659 0.00075096 -0.0041419 -0.003334 -0.0020396 0.0033318 -0.0015013 0.0043306 0.0042984 -0.0031652 -0.0023205 0.0046373 -0.0038365 0.0010835 0.00011959 -0.0049875 -0.0078907 -0.0033507 0.00089639 0.0029928 -0.0036559 0.0017091 -0.0074403 -0.0034687 
Jordan -0.0001703 0.0025991 -0.0012594 -0.00020034 -0.00097434 -0.0013594 0.0018088 -0.00131 5.9024e-05 0.0021289 0.0021333 0.0024985 0.0019779 0.00050359 5.5441e-05 0.0011764 0.0018713 0.00066078 0.00073987 0.002915 0.00030518 7.0757e-05 0.0012831 -0.00055517 -0.00020775 -0.001104 -0.00064822 0.00077788 -0.0010325 0.0018275 -0.0015656 -0.0016712 0.0018966 0.00036612 0.0013834 0.0001699 -0.0017449 -0.00035398 0.0001471 0.0012952 -0.0002599 -0.00029226 0.00062296 0.0020253 0.0014177 0.00083723 0.0004897 0.00015085 -0.00059409 -0.001409 -0.0011817 -0.00063427 -0.0016505 -8.2156e-05 0.00015961 -0.00012648 -0.0014992 0.0014216 0.0015936 -0.0011694 -0.00035287 -0.0010054 0.00038068 -0.0012856 0.0020868 -0.00070671 0.0019144 -0.00057641 -0.0024136 -0.00012898 -0.00031588 0.002657 0.0025891 -0.0012018 0.0018458 0.00011025 -0.0019827 -0.00032565 -0.0010618 -0.00037023 -0.00050486 -0.00056255 0.00060621 0.0007771 -0.00022565 0.00058854 0.00301 -0.00011916 0.00055902 0.00023087 0.001282 -9.1631e-06 -0.0015052 0.0025938 -0.00156 -0.0013543 0.002206 0.00068554 0.0015995 0.0008643 
the 0.0011281 -0.00088443 0.00085265 -0.0021051 0.0035847 0.0020861 0.00027794 0.00086149 0.00078108 -4.7585e-05 0.0016196 0.0036742 0.001864 -0.00093446 0.0012194 9.008e-05 0.001112 1.5548e-05 -0.00043792 0.0029653 -0.00075022 -0.0024457 -0.00086881 -0.0020454 -0.001866 0.00052737 0.0024396 0.001703 -0.0024583 0.0014547 -0.0013344 0.0040935 0.0022243 0.001864 0.0011336 0.0027161 0.0019241 -0.0031132 0.0022987 0.00058157 -0.0010419 -3.3507e-05 -0.0019576 0.0011531 0.0026116 0.0014149 0.0021105 -0.00065958 0.0040461 0.0018391 -0.0037236 0.0012278 0.0025125 -6.2241e-05 0.00020107 -0.0032162 4.3598e-05 0.0015063 0.00074313 0.0010661 0.00071651 -0.0022504 0.0028664 -0.0030707 -0.0012825 0.00070388 -0.00019432 -0.0019064 -0.0014824 0.0045994 -0.0010945 -0.0015497 -0.0043144 -0.0015838 0.00030662 -0.00064552 -0.00078935 0.0023844 0.001018 0.00038729 0.0013258 -0.00061273 -0.0019124 0.0013273 -7.3282e-05 -0.0016762 -0.0018274 0.0036072 -0.0033869 0.0021157 -0.00026585 -0.0017906 -0.0023026 -0.0032015 0.0018544 -0.00054622 -0.0008932 -0.0010756 0.00080609 -0.00064418 
with -0.00402 -0.0024397 -0.00044898 -0.00039964 0.00052158 -0.0022326 0.00076545 -0.0015199 5.3047e-05 -0.00074438 -0.0032999 -0.0015447 -0.0012729 0.00057704 0.0012027 -0.0020735 0.0014444 0.0004453 -0.0018213 0.0011978 -0.0013447 0.0021381 -0.001539 -0.00048646 -0.0016409 -0.00021264 0.0032832 -0.0022242 0.00057091 -0.0019266 3.872e-05 0.0004785 -0.00019181 -0.0027793 -0.0016332 0.00088216 -0.00016464 -0.0013134 0.0019379 0.0012495 -0.00086312 -0.001843 0.0016683 -0.001587 0.0015543 -0.0026955 0.0015371 -0.0005666 -0.00019302 0.002695 0.00064021 0.00068241 1.3405e-05 0.0022732 -0.002286 -0.00010667 0.0021959 -0.000101 -0.0013202 -0.0012363 0.00048032 0.0010902 0.0023795 0.00044795 -0.0004518 -0.0015424 -0.0013272 0.00071469 -0.0016358 -0.00075293 0.0013211 -0.0027433 0.0029624 0.0039443 -0.00086829 0.0028266 -0.00085877 -0.0021668 0.0030517 -0.00085379 -0.0014583 0.00050041 0.00063306 -0.0029103 0.00055806 -0.0015447 0.00015286 0.00091988 -0.001914 -0.0040768 0.0019779 0.0016968 0.0010629 -0.00061293 -0.0025212 0.0018811 -0.0050337 0.0022574 -0.00066906 0.00034292 
in -0.005325 -0.002142 0.0017838 0.0027775 -0.0010027 0.0051042 0.0042505 -0.0034131 -0.0014476 0.00033205 -0.0008574 -0.0013173 0.0043008 8.0328e-05 -0.00074083 -0.0026806 -0.0038336 -0.0026438 0.0021272 -0.0026899 -0.00020168 0.00047133 0.00019246 0.00041332 -0.0023632 0.00023207 0.000364 -0.0017428 -0.0014935 -0.0038077 -0.0012531 -0.0014658 -0.00030682 -0.00093088 0.00029115 0.0032931 -0.0023988 0.0019342 0.00021043 0.0024164 0.00068809 0.00074846 -0.0038522 0.0011628 -0.0011705 -0.0037387 0.0031344 -0.0041774 -0.0010828 0.003217 -0.0013492 -0.00049528 -0.00064731 0.0016748 -0.0038936 0.0024307 -0.00093947 0.0051672 0.0042794 0.0027463 8.516e-05 0.0014762 0.0020266 0.0014816 -0.0019312 -0.0050864 -0.00030473 0.0018838 -0.0030689 0.0027608 0.0055936 0.00027215 0.00048147 0.0041878 0.0007081 0.0016657 0.00091101 0.00080892 0.002605 0.0019288 0.00092152 -0.005503 0.0043126 -0.0028083 -0.0071248 -0.0031352 7.3325e-05 -0.00014669 -0.0023813 0.0022847 0.0025049 0.001373 0.0038731 -0.0023406 -0.0060915 0.00073318 -0.005292 -0.0032997 -0.0034839 -0.0019206 
work 0.0010502 0.00096169 -0.002805 0.00095049 -0.00048092 0.0035752 -0.00011913 -0.0013114 7.0061e-05 0.00019076 -0.00015428 0.00061478 0.0004326 -0.0022628 0.00010268 -0.0015644 -0.00034068 -0.00073042 0.0017119 0.00061031 -0.00015484 -0.00068007 -0.0019728 -0.0031645 -0.0020274 0.00013044 0.00049884 0.0010528 -0.001028 -0.000104 0.0012037 0.00091126 -0.0015048 0.0017357 -0.0020842 -0.0017182 -0.00016425 -0.0011737 -0.0001779 -0.0011307 -0.0028694 -0.0031873 -0.0010906 -0.0012225 0.0024673 -0.00082327 0.0015367 2.7838e-05 -0.0017766 0.0023471 -1.4088e-06 -0.0022781 0.0030849 -0.0022687 0.0025045 0.0016348 0.00068899 0.0024383 -0.0016847 -0.0019666 0.00043588 0.00079494 0.00060508 0.0030155 -0.00035652 7.7213e-05 0.0018012 0.00096139 -0.00085226 0.00030587 0.0013422 0.0016877 -0.0002243 0.0022439 0.00076626 -0.0042762 0.00086422 0.00085372 -0.0006153 -0.0018532 0.001954 0.0051209 1.5095e-05 0.0024019 0.00082807 -0.00087718 0.001768 -0.0024107 -0.0011931 -0.0017003 -0.0014348 0.0018598 0.0022595 -0.0022225 -0.001051 -0.00046578 0.0028956 0.00012454 0.0006132 -0.0003625 
